{"weights": [-0.008977, -0.289038, -0.078565, 0.031076, 0.015269, -0.133409, -1.397693, 1.110754, -0.012317, -2.248033, -1.049898, -0.432212, -1.401169, -0.193444, 0.123273, -1.580124, 0.028922, -0.040593, 0.269096, 0.902086, -0.215163, 0.640925, -1.226413, -0.169779, 0.012716, -0.194507, 0.05196, 0.0, 0.0, -0.0, -0.0, 0.0, -0.0, -0.0, -0.0, -0.0, -0.419233, -0.584014, -0.16074, -0.255828, -0.154588, 0.202636, 0.316802, 0.597783, 0.468255, 1.065723, -1.564086, -0.143948, -0.045442, -0.199924, 0.167126, -0.277054, 0.013038, 0.048585, 0.975002, 0.167039, -0.384183, -1.225078, -0.464034, -0.221043, 0.733714, 0.087317, -0.293394, -1.404081, -1.171527, -1.347163, -0.32646, -0.207491, -0.373846, 0.254967, 0.251558, -0.10131, -0.0, -0.0, 0.0, -0.0, 0.0, -0.0, -0.0, -0.0, 0.0, -0.0, -0.0, 0.0, 0.0, -0.0, -0.0, 0.0, -0.0, -0.0, -0.228006, 0.336798, -0.523015, -0.285598, 0.395444, -0.462925, -0.278823, 0.880844, -0.787913, 0.133399, 1.006435, 0.479896, -0.288894, -0.790082, 0.232814, -0.288729, -0.30801, -0.213021, 0.488453, -0.125132, 0.073276, 0.064902, -1.332725, 0.017459, -0.183653, 1.192423, -0.138938, -0.281722, -0.260477, 0.890486, -0.599392, -0.226081, 0.351993, -0.312274, 0.100354, 0.423785, -0.0, -0.0, -0.0, -0.0, 0.0, -0.0, -0.0, -0.0, -0.0, -0.0, -0.0, -0.0, 0.0, -0.0, 0.0, -0.0, -0.0, 0.0, 0.285456, 0.070556, 0.045647, -0.068027, -0.877922, 1.131551, -0.153792, -0.617824, 0.054679, -0.918036, 0.799696, -0.28924, -0.637598, 0.372953, -0.360108, -0.598174, 0.230919, -0.191658, -0.056713, 1.116529, 0.151513, -0.068192, -1.764198, -0.152431, -0.005779, 0.498187, 0.968494, -0.0, -0.0, -0.0, -0.0, -0.0, 0.0, -0.0, -0.0, 0.0, -0.0, -0.0, 0.0, -0.0, -0.0, -0.0, -0.0, -0.0, -0.0, 0.002449, -0.280683, -0.249926, 0.538856, -0.777402, -0.363884, 0.456667, 0.684596, -0.223053, -0.0, -0.0, -0.0, 0.0, -0.0, -0.0, -0.0, -0.0, 0.0, -0.0, -0.0, -0.0, -0.0, -0.0, -0.0, -0.0, -0.0, 0.0, 0.089306, -1.383583, 1.318598, 0.348408, 0.949593, 0.481009, 0.103859, -0.04055, -0.285283, -1.058777, -0.494884, -0.221336, 1.015486, 0.236428, 0.2033, -0.262287, -0.346569, -0.252247, -0.0, -0.0, -0.0, 0.0, -0.0, -0.0, 0.0, -0.0, -0.0, -0.342437, -0.142597, -1.526778, -0.055217, 0.192817, 1.004277, -0.274214, -0.197564, -0.006557, -0.0, -0.0, -0.0, 0.0, -0.0, -0.0, 0.0, -0.0, -0.0, -0.26865, -0.151267, 0.110012, 0.115057, -0.616625, -0.114037, 1.379976, -0.99689, 0.007268, -0.1404, -0.317833, -0.275049, 0.757191, 0.103441, 0.786205, -0.867928, -0.816856, -0.938081, 0.195705, -0.068158, -1.214789, 0.133115, -0.613041, -1.344861, -1.376216, -1.231523, -1.953704], "biases": [-0.361448, 0.341184, -0.08382, -0.0, 0.011651, -0.487045, -0.259424, 0.209994, -0.0, -0.0, -9e-06, 0.059891, -0.507932, 0.025824, -0.0, -0.0, -0.820414, 0.010177, -0.752083, -0.0, -0.0, 0.004647, -0.0, -0.0, -1.170359, 0.002412, -0.0, -0.262648, -0.0, -0.833734, -0.000692, 0.332303], "shape": [32, 1, 3, 3]}