{"weights": [3.5179597946874533e-40, 3.4900179033088164e-40, -3.687727103640405e-40, -3.6001179236508173e-40, -3.471198464932934e-40, -3.1494883634932426e-40, 3.712922450028965e-40, -3.7117593723035755e-40, -3.3520320435267517e-40, 3.3147575043757115e-40, 3.192255992624436e-40, 3.274862537096384e-40, -3.3619111977002416e-40, -3.5718817595946722e-40, -3.4086585144701175e-40, -3.498173460371187e-40, -3.0204568008982135e-40, -3.3689597289757955e-40, -3.2083849379488147e-40, -2.990945455239533e-40, 2.8778186302145903e-40, 3.689380635828308e-40, -3.0753596747304598e-40, 2.87186311174121e-40, 3.3396165391328338e-40, 2.936519022885157e-40, 2.9936920002296094e-40, 3.148605545460718e-40, 3.177402228902593e-40, 3.1423837802791158e-40, 3.599585430234374e-40, 3.637210294001495e-40, 3.2585654359562864e-40, 3.3338431894598155e-40, 3.4894013319845135e-40, 3.110616344092872e-40, -3.364293405089594e-40, -3.5158298210216795e-40, -3.112690265820073e-40, -3.1838201758692006e-40, -3.3051445969104433e-40, -3.381977791709373e-40, 3.0947116065227855e-40, 3.2588456956491513e-40, 3.3728693516912617e-40, -3.357637237384051e-40, -3.3664373917400108e-40, -3.2311840639633794e-40, -3.3842759211908657e-40, 3.2867455480738584e-40, -3.1745575930200136e-40, -3.0595950670068056e-40, -3.154925401534823e-40, -3.542006076335267e-40, -3.126072666154375e-40, -2.7058793086419353e-40, -1.9297141022370623e-40, 3.2959380659998292e-40, -3.2410772311215127e-40, -2.9740878347137053e-40, -3.2319127391648283e-40, 3.585866718268634e-40, -3.131677860011674e-40, 0.24459384381771088, -0.06521525979042053, -0.5091166496276855, 0.3135940134525299, 0.6815894842147827, -0.33758533000946045, -0.02582589164376259, 0.12941843271255493, -0.3472227156162262, -2.9791745481392043e-40, -2.9306195563503494e-40, 3.055545314444907e-40, -3.2784638741496988e-40, -3.005364816437435e-40, 2.8438231294700703e-40, -3.3207550618030218e-40, -2.9137899617938084e-40, 2.9971391944518485e-40, 3.8572702048390645e-40, -3.607054351049225e-40, -3.6516156422147543e-40, -3.6254814258550965e-40, -3.3558155493804287e-40, -3.503876745120989e-40, -3.37808218197855e-40, -3.3165091274561176e-40, 3.4794661258724505e-40, 3.3831268564501194e-40, -3.1905464084979597e-40, -2.890051965808146e-40, -3.5736894346136512e-40, -3.0295652409163248e-40, -2.854360893921793e-40, 3.5794627842866695e-40, -3.1908266681908247e-40, -2.912010312744116e-40, -0.32268068194389343, -0.2876735329627991, -0.11157628148794174, -0.3616142272949219, -0.2468102127313614, 0.48291048407554626, 0.34932175278663635, 0.4854515492916107, 0.2879652678966522, 0.19472679495811462, -0.2318190634250641, -0.19341640174388885, -0.015710903331637383, 0.693219006061554, -0.5242624282836914, -0.2230938971042633, 0.12333409488201141, 0.609997570514679, -0.032857343554496765, -0.7075265049934387, -0.12250670790672302, 0.11268950253725052, 1.4858356714248657, 0.1353697031736374, -0.0930541604757309, -0.7659478783607483, -0.012824524194002151, -3.2088894053959716e-40, 2.9686087577181952e-40, -3.146125247178863e-40, 3.0967995412346295e-40, 2.5795102131291233e-40, 2.9931875327824525e-40, -2.7291408631497272e-40, 2.057932911722783e-40, 3.2694114860701605e-40, -3.2145226252225574e-40, -3.0924975549491523e-40, -3.055671431306696e-40, -3.557812723012851e-40, -3.105795877375595e-40, -3.081987816466716e-40, -3.277847302825396e-40, -3.069207974472074e-40, 3.509692133747937e-40, 2.5599200605978623e-40, -1.8693181384246627e-40, -2.143916585493754e-40, -3.459567687679038e-40, -3.3262761777524615e-40, 2.768643466859044e-40, -2.5988481319368057e-40, -3.060632027870406e-40, 2.6426527219315995e-40, 0.48614194989204407, 0.6339462995529175, 0.26065781712532043, -0.5427228212356567, 0.35851988196372986, 0.01146102137863636, -0.5902920961380005, -0.447933554649353, -0.3149001896381378, 3.042849550358124e-40, -2.4687235565396032e-40, 4.0356835253169e-40, -2.0524117957733433e-40, -2.7033429584215073e-40, -1.767695973791827e-40, 1.06515498870258e-40, 3.004453972435624e-40, -3.039738667767323e-40, -0.06803597509860992, 1.0309319496154785, -0.018114222213625908, -0.009821329265832901, -0.03558976948261261, -0.04355064779520035, -0.025951633229851723, 0.01710369996726513, 0.020769067108631134, -3.3530269654364223e-40, -3.3651762231221185e-40, -3.371313910395861e-40, -2.982369508637865e-40, -3.3710056247337097e-40, -3.225564857121437e-40, -3.0553631456445446e-40, -3.078806868952699e-40, -3.1134609799754516e-40, 0.5174255967140198, -0.22753596305847168, -0.03696331009268761, -0.14531971514225006, -1.1714063882827759, 0.04784386605024338, 0.00029996869852766395, -0.09181034564971924, 0.3214101195335388, -3.108640513258174e-40, 3.300282091239236e-40, 3.371257858457288e-40, -3.0719685324467937e-40, -3.35776335424584e-40, -2.352163550277065e-40, -3.2361586735117325e-40, 3.0744908696825784e-40, -2.153081077450438e-40, 1.7946149172915067e-40, 3.1197107711263402e-40, 5.96357593955034e-40, 3.4515522604631e-40, 6.438980456557178e-40, -1.259739293458724e-40, -2.2524191255864245e-40, -3.457914155491135e-40, 3.2616763185470875e-40, 6.252944072433415e-40, -5.851822387020436e-41, 3.2178016636290774e-41, -9.385756984201192e-41, 9.724731082721366e-41, 3.2729707841695455e-40, -6.302858323732665e-40, -3.829076079736849e-40, 5.835987714373566e-41, -0.03639603778719902, 0.060853827744722366, -0.8487368822097778, 0.12471355497837067, 0.26161715388298035, -0.32731515169143677, -0.13274621963500977, -0.33481207489967346, -0.9544358253479004, -1.5607802425496245e-40, -2.7529769500278924e-40, -2.7577133388373103e-40, -2.8001726823063522e-40, -2.7220502929202437e-40, -2.9227722849501305e-40, -3.57773918717555e-40, 3.6742466124136e-40, -3.2076002108087928e-40, -3.143967247543803e-40, -3.201126211903612e-40, -2.63985012500295e-40, -3.549124672534037e-40, -3.2290821162668922e-40, -2.745059613704457e-40, -3.0145713473480492e-40, 3.348724979150945e-40, -3.1408423519683585e-40, -0.06604894250631332, 0.06769685447216034, 0.015662474557757378, 0.8521062135696411, -0.9434998035430908, 0.02230168879032135, -0.9029510021209717, 0.8866122364997864, -0.09039939939975739, 3.0394864340437445e-40, 3.2975915981877325e-40, 3.3286864111111002e-40, 3.3798618310282425e-40, 3.1924101354555118e-40, 3.478863567532791e-40, -3.67924924793124e-40, 3.323529632762385e-40, -3.354316160023601e-40, -3.5255408193794505e-40, -3.143518832035219e-40, -3.27001404440982e-40, -3.4395851715777662e-40, -3.548087711670437e-40, -3.2965826632934187e-40, -3.3387617470695956e-40, 3.4760329446348547e-40, -3.1853896301492444e-40, -3.178243007981188e-40, 2.6475572665567364e-40, 2.7368339917188705e-40, 3.3093344793187745e-40, 2.6228383616460466e-40, -1.7729368300484018e-40, -2.824891587217042e-40, -1.639294995505744e-40, -5.226843271931568e-43, -3.242898919125135e-40, -3.6341134243953373e-40, 3.2344490893852563e-40, -3.09671546332677e-40, -3.4297620693428493e-40, -3.1907425902829652e-40, -3.1099577338146395e-40, -3.445961079590444e-40, -3.201448510550407e-40, -3.5443322317860463e-40, -7.776645957617005e-41, 6.19062832972489e-40, -3.147526545643188e-40, -1.0023347785468984e-40, 3.1778226184418904e-40, -3.101577968997977e-40, -2.82358837964522e-40, -2.4055109828139107e-40, -0.069756418466568, -0.20972087979316711, 0.8862209320068359, 0.07050205767154694, -1.0665996074676514, -0.3738667666912079, 0.5087816119194031, 0.09137985110282898, -0.00574853178113699, 0.5010042190551758, -0.022481290623545647, 0.03468847647309303, -0.5131675004959106, -0.31703734397888184, -0.05061648041009903, 0.026413893327116966, 0.5214946269989014, -0.055404726415872574, -0.08024575561285019, -0.009169310331344604, -0.07425181567668915, 0.1409190595149994, -0.8326447606086731, 0.22083888947963715, 0.1728617399930954, -1.0308958292007446, 0.10382703691720963, 3.4069629433282845e-40, 3.3157804522546686e-40, 3.4388705093609606e-40, 3.479255931102802e-40, 3.313258115018884e-40, 3.269565628901236e-40, 3.0985511643150355e-40, 3.3494676673370373e-40, 3.379035064934291e-40, -0.3290092349052429, 0.22497311234474182, -0.02966471202671528, -0.4189527928829193, 0.46010977029800415, 0.2359216809272766, -0.6463474035263062, -0.6998047232627869, -0.2329413890838623, -0.1291484832763672, 0.1295665204524994, 0.09847376495599747, -0.8116066455841064, 1.0580581426620483, -0.13667409121990204, -0.712925910949707, 0.4407307207584381, 0.08057145029306412, -2.9967608438664808e-40, -3.1889629412332727e-40, 3.034665967326467e-40, -3.0547465743202417e-40, -2.969729796489655e-40, -3.4027170089813803e-40, -3.326640515353186e-40, -3.1945260961366422e-40, -3.455826220779291e-40, -0.20703479647636414, -0.459797203540802, -0.7439730167388916, -0.2114139050245285, -0.07806001603603363, -0.334849089384079, 0.2232770174741745, 0.09407064318656921, 0.28377097845077515, -3.526858039935916e-40, -3.33912608467032e-40, 3.1900139150815163e-40, 2.7976083061166378e-40, 3.0244785274908257e-40, 2.7906438527489435e-40, 2.76215545496922e-40, 2.545949114908544e-40, -9.953002602559878e-41, -3.6437263318606056e-40, 3.2938781572572718e-40, 3.33256800785728e-40, 3.547246932591842e-40, 2.6721920935595667e-40, 3.095131996062083e-40, 3.4497726114134077e-40, -3.1898597722504406e-40, -3.571993863471818e-40, -0.33082279562950134, -0.01588655635714531, 0.47596392035484314, -0.04326614364981651, 1.0995734930038452, -0.756507933139801, 0.5352972149848938, -0.7177940607070923, -0.07681652903556824, -3.6632043805147205e-40, -3.2670853306193813e-40, -3.0517477956065866e-40, -3.543687634492457e-40, 3.2851760937938146e-40, -2.969547627689293e-40, -3.2266298439543238e-40, 3.4262588231820372e-40, -2.2916694955721626e-40, -3.593489781914561e-40, -3.19542292715381e-40, -3.86294546361958e-40, -3.0332086169235693e-40, -3.2515589436346623e-40, -3.389937166986738e-40, -3.3240621261788283e-40, -3.3276914892014296e-40, -3.15706938818524e-40, 0.10238213837146759, -1.3560411930084229, 0.12205304205417633, 0.03367355093359947, 0.20350918173789978, 0.06917021423578262, -0.054197683930397034, -0.015446356497704983, -0.06685955077409744, 2.6469827341863632e-40, 3.0489171727086505e-40, 3.1998370173164333e-40, 2.2160414174525522e-40, 2.95025174783554e-40, 3.2257750518910856e-40, 2.0998597617753816e-40, 3.1341301323242426e-40, 3.4922880068210226e-40, -1.1774550476335708e-40, -3.016421061320958e-40, 3.383505207035487e-40, 2.5715087988978286e-40, -3.2813785749554944e-40, -2.5960735609774426e-40, 9.781203410833656e-41, 2.809028888600885e-40, -1.7387591605035195e-40, 0.1597750037908554, 0.03288908675312996, 0.18954569101333618, 0.42965927720069885, -0.8119646906852722, 0.42580848932266235, -0.017341770231723785, -0.026824939996004105, 0.09173861145973206, -3.375251559080614e-40, -2.81202766731454e-40, 3.182993409775249e-40, -2.7338352130052154e-40, -2.477523710895563e-40, -2.272555784518772e-40, 4.641801163075957e-41, -1.3731603911611747e-40, 5.3704763645248614e-40, 2.3633038730684472e-40, -3.9178623504364696e-40, -3.4192102919064834e-40, 2.5792299534362583e-40, -2.350972446582389e-40, -2.444102742521416e-40, 2.642064176576583e-40, 2.7428876010847537e-40, 2.966618913898854e-40, -0.3538713753223419, -0.32410910725593567, 0.22963587939739227, -0.1948307454586029, -0.01985243894159794, 0.1565263718366623, -0.8318119049072266, -0.37271031737327576, 0.2413119524717331, 3.21794179347551e-40, -2.9223098564569033e-40, -2.637944359091468e-40, -3.2752969396203247e-40, -2.098360372418554e-40, 2.5974188075031944e-40, 3.13782956027006e-40, -2.2647225261031964e-40, 2.6694735745387765e-42, 2.6140241943054435e-40, 2.8259846000192153e-40, 3.2001733289478712e-40, 2.1371202879417785e-40, -1.3779107929552359e-40, -1.0647205861786393e-40, 3.828683716166838e-40, 4.686894947657929e-40, 2.0162162564398333e-40, -0.9347267150878906, -0.3518067002296448, -0.33158597350120544, -0.2982935607433319, 0.12001991271972656, 0.1066143810749054, -0.19719040393829346, 0.15406037867069244, -0.012890026904642582, 0.06896281987428665, 0.043588172644376755, 0.08418499678373337, -0.0501093827188015, 0.2218237668275833, -0.18073736131191254, -0.6902866959571838, -0.3881990909576416, -0.6557337045669556, -3.4252498882877234e-40, 3.59037889932376e-40, -3.551871217524114e-40, -2.973555341297262e-40, -3.073790220450416e-40, -3.327929709940365e-40, -3.1824048644202326e-40, -3.401455840363488e-40, -3.191415213545841e-40, -0.01761993207037449, -0.011613614857196808, -0.0705437883734703, -0.018523402512073517, 0.09217870980501175, 0.1653708964586258, -0.0729050263762474, 0.1372748166322708, -1.3227684497833252, -2.5637596183901123e-40, -3.197510861865654e-40, 3.460058142141552e-40, -2.6876484156210694e-40, -3.0696563899806578e-40, -3.4893873189998702e-40, -2.5339960390078532e-40, -3.4351290424612133e-40, -3.4200230450157918e-40, -3.1963477841402645e-40, 3.564805202349832e-40, -3.4537803250213766e-40, -2.743700354194062e-40, -3.2176335078133585e-40, -3.2928972483322444e-40, -3.196600017863843e-40, 3.5248121441780016e-40, -3.5431831670453e-40, -3.4550835325931987e-40, -3.0770972848262226e-40, -3.591233691386998e-40, -3.335062319123778e-40, -3.285021950962739e-40, -3.499644823758728e-40, -3.2555946832119178e-40, -3.3102313103359424e-40, 3.2485321389517207e-40, -0.1752365082502365, -0.6556109189987183, -0.6793419122695923, 0.2732788026332855, 0.5031701326370239, -0.45734331011772156, 0.025615133345127106, 0.19722311198711395, -0.21949665248394012], "biases": [-4.299703850538496e-38, -6.788681214562065e-38, -3.679753715378397e-40, 1.2658814648875526e-38, -1.40575459344137e-40, 3.060688079808979e-40, 5.714256916777669e-40, 0.00024013816437218338, -4.382167462567083e-38, -2.42730005289539e-38, 3.1652103717435813e-38, -0.0008410467999055982, -8.370821888092905e-06, 0.0016986087430268526, 6.789961440839072e-38, -1.6244995258000169e-38, -5.997403284479141e-40, -0.000335400749463588, 8.968792218350557e-39, -7.197306695161387e-05, -7.31842135978279e-41, -0.0014220597222447395, 4.0116820852199447e-38, 6.709246649293962e-38, 2.0730024754081322e-38, 0.001532010966911912, 2.002581622381953e-40, -5.778534477336248e-40, 0.001446165144443512, -5.029553900619891e-38, -4.833302611210586e-39, 6.6440492764234e-39, -4.775954751817786e-38, 4.691253546401365e-38, 0.0018768847221508622, 0.0009609972476027906, -0.0014783205697312951, 3.534294450626395e-38, 0.0030705344397574663, -0.0007911085267551243, 6.730467913237697e-38, -0.003774353303015232, 4.5514577695227784e-38, 2.2062939853347088e-38, 0.0009315305505879223, 1.0063161477437381e-38, 4.7290319924801764e-40, 8.293741120724007e-05, -5.9960580379533895e-40, -4.6910517594225023e-38, 0.0006822323193773627, -6.337507950600332e-38, -6.741517992407977e-38, 0.0010258792899549007, -2.2558080257925476e-38, -5.105051377722626e-38, 0.000385042279958725, 4.859089676756412e-05, -4.928781483375822e-38, -0.0034761764109134674, 4.79931047358238e-38, -3.4322978590438915e-38, 6.098921753025617e-38, -0.0006319405511021614], "shape": [64, 1, 3, 3]}